<?xml version="1.0"?>
<opencv_storage>
<stage4>
  <maxWeakCount>12</maxWeakCount>
  <stageThreshold>-7.0639777183532715e-01</stageThreshold>
  <weakClassifiers>
    <_>
      <internalNodes>
        0 -1 65654 4.8551745712757111e-03</internalNodes>
      <leafValues>
        -1.7021276056766510e-01 8.0392158031463623e-01</leafValues></_>
    <_>
      <internalNodes>
        0 -1 25939 4.1484390385448933e-03</internalNodes>
      <leafValues>
        -4.3421617150306702e-01 4.9356657266616821e-01</leafValues></_>
    <_>
      <internalNodes>
        0 -1 156124 1.0617182124406099e-03</internalNodes>
      <leafValues>
        -2.1362589299678802e-01 8.6793875694274902e-01</leafValues></_>
    <_>
      <internalNodes>
        0 -1 159837 -2.7438331395387650e-02</internalNodes>
      <leafValues>
        2.3146332800388336e-01 -9.1664409637451172e-01</leafValues></_>
    <_>
      <internalNodes>
        0 -1 158313 -1.1600108444690704e-01</internalNodes>
      <leafValues>
        -7.6330399513244629e-01 2.5405588746070862e-01</leafValues></_>
    <_>
      <internalNodes>
        0 -1 89923 5.2835475653409958e-03</internalNodes>
      <leafValues>
        -3.2978904247283936e-01 7.6149010658264160e-01</leafValues></_>
    <_>
      <internalNodes>
        0 -1 35197 -3.8235813379287720e-02</internalNodes>
      <leafValues>
        6.6297149658203125e-01 -2.6777228713035583e-01</leafValues></_>
    <_>
      <internalNodes>
        0 -1 146091 1.2240182608366013e-02</internalNodes>
      <leafValues>
        -5.3707665205001831e-01 4.2951038479804993e-01</leafValues></_>
    <_>
      <internalNodes>
        0 -1 148879 8.1254134420305490e-04</internalNodes>
      <leafValues>
        -3.2092836499214172e-01 5.9706950187683105e-01</leafValues></_>
    <_>
      <internalNodes>
        0 -1 2178 -1.1966033838689327e-02</internalNodes>
      <leafValues>
        7.3558074235916138e-01 -2.4432276189327240e-01</leafValues></_>
    <_>
      <internalNodes>
        0 -1 56238 1.2345139402896166e-03</internalNodes>
      <leafValues>
        -2.0795458555221558e-01 7.8474009037017822e-01</leafValues></_>
    <_>
      <internalNodes>
        0 -1 159964 -9.2891626991331577e-05</internalNodes>
      <leafValues>
        5.6739449501037598e-01 -3.7477844953536987e-01</leafValues></_></weakClassifiers></stage4>
</opencv_storage>
